net
{
    node_size = (80 40);
    HR_DBN_Num_Slices = "5";
    HR_Desc = "";
    HR_OOBN_CheckConsistency = "1";
    HR_OOBN_FitExpand = "1";
    HR_Zoom_ZoomFactor = "100";
    HR_Groups_GroupColors = "";
    HR_Groups_GroupNames = "";
    HR_Groups_UserGroupsNo = "0";
    HR_Utility_Link = "63";
    HR_Probabilistic_Link = "63";
    HR_Functional_Link = "63";
    HR_Binding_Link = "63";
    HR_Information_Arc = "63";
    HR_Color_Interface = "21";
    HR_Color_Instance = "0";
    HR_Color_DiscreteFunction = "5";
    HR_Color_Function = "4";
    HR_Color_Utility = "36";
    HR_Color_Decision = "17";
    HR_Color_ContinuousChance = "48";
    HR_Color_DiscreteChance = "16";
    HR_Monitor_InitSD = "2";
    HR_Monitor_Utility_Arrange = "0";
    HR_Monitor_Mean_Variance = "1";
    HR_Monitor_Chance_Utility = "1";
    HR_Monitor_InitStates = "5";
    HR_Monitor_OpenGraph = "0";
    HR_Monitor_GraphPrecision = "100";
    HR_Monitor_AutoUpdGraph = "0";
    HR_Compile_MaxMinimalSeparators = "100000";
    HR_Compile_ApproxEpsilon = "1.0E-5";
    HR_Compile_Approximate = "0";
    HR_Compile_SaveToMemory = "0";
    HR_Compile_Compress = "0";
    HR_Compile_TriangMethod = "0";
    HR_Propagate_AutoNormal = "1";
    HR_Propagate_AutoSum = "1";
    HR_Propagate_Auto = "1";
    HR_Font_Italic = "0";
    HR_Font_Weight = "400";
    HR_Font_Size = "-12";
    HR_Font_Name = "javax.swing.plaf.FontUIResource[family=Tahoma,name=Tahoma,style=plain,size=11]";
    HR_Grid_GridShow = "0";
    HR_Grid_GridSnap = "0";
    HR_Grid_Y = "40";
    HR_Grid_X = "40";
}

node MDK
{
    label = "MDK";
    position = (615 43);
    states = ("yes" "no");
    HR_Group = "0";
    HR_Desc = "";
    HR_State_1 = "";
    HR_State_0 = "";
}

node MDS1
{
    label = "MDS1";
    position = (483 37);
    states = ("yes" "no");
    HR_Group = "0";
    HR_Desc = "";
    HR_State_1 = "";
    HR_State_0 = "";
}

node ATP2B4
{
    label = "ATP2B4";
    position = (364 46);
    states = ("yes" "no");
    HR_Group = "0";
    HR_Desc = "";
    HR_State_1 = "";
    HR_State_0 = "";
}

node PCCB
{
    label = "PCCB";
    position = (244 47);
    states = ("yes" "no");
    HR_Group = "0";
    HR_Desc = "";
    HR_State_1 = "";
    HR_State_0 = "";
}

node NAP1L1
{
    label = "NAP1L1";
    position = (103 45);
    states = ("yes" "no");
    HR_Group = "0";
    HR_Desc = "";
    HR_State_1 = "";
    HR_State_0 = "";
}

node AML
{
    label = "AML";
    position = (307 201);
    states = ("yes" "no");
    HR_LinkGroup = "[NAP1L1:0][PCCB:0][ATP2B4:0][MDS1:0][MDK:0]";
    HR_LinkMode = "[NAP1L1:0][PCCB:0][ATP2B4:0][MDS1:0][MDK:0]";
    HR_Group = "0";
    HR_Desc = "";
    HR_State_1 = "";
    HR_State_0 = "";
}

potential (MDK | AML)
{
    data
     = (( 0 1 )	%  AML=yes
	( 0.37037 0.62963 ));	%  AML=no
    experience
     = ( 25	%  AML=yes
	 27 );	%  AML=no
}

potential (MDS1 | AML)
{
    data
     = (( 1 0 )	%  AML=yes
	( 0.592593 0.407407 ));	%  AML=no
    experience
     = ( 25	%  AML=yes
	 27 );	%  AML=no
}

potential (ATP2B4 | AML)
{
    data
     = (( 0.04 0.96 )	%  AML=yes
	( 0.296296 0.703704 ));	%  AML=no
    experience
     = ( 25	%  AML=yes
	 27 );	%  AML=no
}

potential (PCCB | AML)
{
    data
     = (( 0.96 0.04 )	%  AML=yes
	( 0.666667 0.333333 ));	%  AML=no
    experience
     = ( 25	%  AML=yes
	 27 );	%  AML=no
}

potential (NAP1L1 | AML)
{
    data
     = (( 0 1 )	%  AML=yes
	( 0.185185 0.814815 ));	%  AML=no
    experience
     = ( 25	%  AML=yes
	 27 );	%  AML=no
}

potential (AML)
{
    data = ( 0.480769 0.519231 );
    experience = 52;
}
